<?xml version="1.0"?>
<opencv_storage>
<cascade>
  <stageType>BOOST</stageType>
  <featureType>LBP</featureType>
  <height>40</height>
  <width>80</width>
  <stageParams>
    <boostType>GAB</boostType>
    <minHitRate>9.9900001287460327e-01</minHitRate>
    <maxFalseAlarm>5.0000000000000000e-01</maxFalseAlarm>
    <weightTrimRate>9.4999999999999996e-01</weightTrimRate>
    <maxDepth>1</maxDepth>
    <maxWeakCount>100</maxWeakCount></stageParams>
  <featureParams>
    <maxCatCount>256</maxCatCount>
    <featSize>1</featSize></featureParams>
  <stageNum>20</stageNum>
  <stages>
    <!-- stage 0 -->
    <_>
      <maxWeakCount>6</maxWeakCount>
      <stageThreshold>-1.2342306375503540e+00</stageThreshold>
      <weakClassifiers>
        <_>
          <internalNodes>
            0 -1 26 -29409441 773750527 1853238842 239021594 2141093727
            494174077 442441644 394112383</internalNodes>
          <leafValues>
            -5.5212354660034180e-01 6.3401108980178833e-01</leafValues></_>
        <_>
          <internalNodes>
            0 -1 1 -1124114659 -269664321 -352424338 -386990340
            125111381 -79726721 2063496964 -94339169</internalNodes>
          <leafValues>
            -4.1947358846664429e-01 6.8351000547409058e-01</leafValues></_>
        <_>
          <internalNodes>
            0 -1 151 -296925171 -856721021 -1037494699 -362084010
            -908015314 -747829208 -961914104 -1474240256</internalNodes>
          <leafValues>
            -5.4512476921081543e-01 5.5875223875045776e-01</leafValues></_>
        <_>
          <internalNodes>
            0 -1 20 -37924098 -1430580987 293843733 2127038721
            -895179539 58889186 601883452 238758683</internalNodes>
          <leafValues>
            -7.2306078672409058e-01 4.4033265113830566e-01</leafValues></_>
        <_>
          <internalNodes>
            0 -1 14 25340919 -1990097486 992643544 -323704618 456260479
            -369000423 -767466939 -267325180</internalNodes>
          <leafValues>
            -5.7057029008865356e-01 5.8499050140380859e-01</leafValues></_>
        <_>
          <internalNodes>
            0 -1 100 -2097742898 -402582706 -1954527770 -967638398
            1363686708 360988892 -1740395520 -1110472014</internalNodes>
          <leafValues>
            -7.1388930082321167e-01 4.6782615780830383e-01</leafValues></_></weakClassifiers></_>
    <!-- stage 1 -->
    <_>
      <maxWeakCount>5</maxWeakCount>
      <stageThreshold>-6.4367508888244629e-01</stageThreshold>
      <weakClassifiers>
        <_>
          <internalNodes>
            0 -1 52 -671772420 -704795952 -180549 -571097285 2147321086
            -1073766660 -251982696 24846527</internalNodes>
          <leafValues>
            -5.5480605363845825e-01 7.2393244504928589e-01</leafValues></_>
        <_>
          <internalNodes>
            0 -1 136 -523462272 1442980230 4226 -658501630 -2142863168
            -1400864750 -1530871678 -1047800237</internalNodes>
          <leafValues>
            -5.9319698810577393e-01 6.2653571367263794e-01</leafValues></_>
        <_>
          <internalNodes>
            0 -1 17 1903206388 -782938044 286331007 293797903 1342734516
            973193226 1891702939 352669698</internalNodes>
          <leafValues>
            -6.7658001184463501e-01 5.3942573070526123e-01</leafValues></_>
        <_>
          <internalNodes>
            0 -1 142 -499059512 -1069357056 337674248 -535773183
            -935215032 -1727922172 1476558986 -98661887</internalNodes>
          <leafValues>
            -5.8959376811981201e-01 6.2716692686080933e-01</leafValues></_>
        <_>
          <internalNodes>
            0 -1 51 1342232776 -741043837 -1811902260 -745963493
            2013544905 99330 1636565215 863699050</internalNodes>
          <leafValues>
            -6.3580858707427979e-01 5.5449604988098145e-01</leafValues></_></weakClassifiers></_>
    <!-- stage 2 -->
    <_>
      <maxWeakCount>6</maxWeakCount>
      <stageThreshold>-1.0217656940221786e-01</stageThreshold>
      <weakClassifiers>
        <_>
          <internalNodes>
            0 -1 24 -1145331142 -1430635713 1069169465 -1624297677
            2046801661 788486131 368509855 1600063935</internalNodes>
          <leafValues>
            -4.7703179717063904e-01 6.4796906709671021e-01</leafValues></_>
        <_>
          <internalNodes>
            0 -1 143 -1162958200 -1805464950 1321396224 534941155
            -701708798 -1355256400 642837728 -1049115229</internalNodes>
          <leafValues>
            -5.2301919460296631e-01 5.8292335271835327e-01</leafValues></_>
        <_>
          <internalNodes>
            0 -1 103 -1046687744 -1069547520 805326848 273859092
            -2007918422 -1069416312 1225450715 -838090601</internalNodes>
          <leafValues>
            -5.6848067045211792e-01 5.4442739486694336e-01</leafValues></_>
        <_>
          <internalNodes>
            0 -1 18 -217853822 -788283264 16664 1937998136 -1607212373
            167968793 218334819 1112752131</internalNodes>
          <leafValues>
            -6.2453544139862061e-01 5.0985956192016602e-01</leafValues></_>
        <_>
          <internalNodes>
            0 -1 50 -733219258 814569480 34185416 555680005 -1120165678
            185221256 -1943502139 1108318892</internalNodes>
          <leafValues>
            -6.5697020292282104e-01 4.5949280261993408e-01</leafValues></_>
        <_>
          <internalNodes>
            0 -1 42 -1956589579 1468010504 285215067 -1660878590
            -1048575704 -1191182251 -2147440370 454492349</internalNodes>
          <leafValues>
            -5.8745282888412476e-01 5.6297791004180908e-01</leafValues></_></weakClassifiers></_>
    <!-- stage 3 -->
    <_>
      <maxWeakCount>7</maxWeakCount>
      <stageThreshold>-7.1257287263870239e-01</stageThreshold>
      <weakClassifiers>
        <_>
          <internalNodes>
            0 -1 79 -1362100690 -186669978 -4412 1207402467 -270598308
            2130311006 -338232060 1684467318</internalNodes>
          <leafValues>
            -4.9044585227966309e-01 5.5890166759490967e-01</leafValues></_>
        <_>
          <internalNodes>
            0 -1 5 -202514209 1385275606 -1073593140 1430388946
            -514255245 815800457 943738887 1971273747</internalNodes>
          <leafValues>
            -4.9537599086761475e-01 5.2165102958679199e-01</leafValues></_>
        <_>
          <internalNodes>
            0 -1 148 -55852928 -678564308 401430636 1431665277 -66933248
            -1039148694 655500937 -727205940</internalNodes>
          <leafValues>
            -4.7565150260925293e-01 5.3734183311462402e-01</leafValues></_>
        <_>
          <internalNodes>
            0 -1 56 1349637627 433099143 167772442 465371268 -1736359047
            2031632385 -1136623368 984873363</internalNodes>
          <leafValues>
            -4.9811556935310364e-01 5.3006500005722046e-01</leafValues></_>
        <_>
          <internalNodes>
            0 -1 98 -286012422 -133959713 -1477378562 -303059539
            -1564465428 -1100054699 -403538450 -591143458</internalNodes>
          <leafValues>
            -4.5167326927185059e-01 6.2020283937454224e-01</leafValues></_>
        <_>
          <internalNodes>
            0 -1 10 -753699490 320918864 1166559502 -628424444 176232960
            2020085925 2073755657 1575701389</internalNodes>
          <leafValues>
            -6.2729394435882568e-01 4.6043124794960022e-01</leafValues></_>
        <_>
          <internalNodes>
            0 -1 34 -760560864 -996949886 67108887 -989296251
            -1576296292 -1214476116 -326312955 25993883</internalNodes>
          <leafValues>
            -7.3221766948699951e-01 3.8397759199142456e-01</leafValues></_></weakClassifiers></_>
    <!-- stage 4 -->
    <_>
      <maxWeakCount>7</maxWeakCount>
      <stageThreshold>-8.3581960201263428e-01</stageThreshold>
      <weakClassifiers>
        <_>
          <internalNodes>
            0 -1 46 544142072 -1182753280 -2147466856 -1724316540
            100705690 -1190493950 1664672138 7670922</internalNodes>
          <leafValues>
            -6.8847352266311646e-01 4.8553556203842163e-01</leafValues></_>
        <_>
          <internalNodes>
            0 -1 139 -221052940 -711135072 -343623772 -638097208
            -72357410 1725323725 39107279 -137896737</internalNodes>
          <leafValues>
            -3.4351786971092224e-01 7.1845525503158569e-01</leafValues></_>
        <_>
          <internalNodes>
            0 -1 59 1360562580 -639839717 84480901 -1346025447
            1074307195 -1732591447 -1409250544 -2113929208</internalNodes>
          <leafValues>
            -5.7186877727508545e-01 4.6182134747505188e-01</leafValues></_>
        <_>
          <internalNodes>
            0 -1 30 1145083850 -1006067440 285528518 -7165952 1074499836
            1991028884 -452951860 883269742</internalNodes>
          <leafValues>
            -7.5212460756301880e-01 3.4184676408767700e-01</leafValues></_>
        <_>
          <internalNodes>
            0 -1 127 1609365602 -139985940 -16898320 -42561118 -52060820
            248839518 -717257288 -648046709</internalNodes>
          <leafValues>
            -5.1189464330673218e-01 5.5055838823318481e-01</leafValues></_>
        <_>
          <internalNodes>
            0 -1 156 -1255106668 9537802 -1895689472 -1115357120
            -1785937670 176166689 -360154464 363971072</internalNodes>
          <leafValues>
            -6.6065454483032227e-01 4.2794588208198547e-01</leafValues></_>
        <_>
          <internalNodes>
            0 -1 101 -302778168 -1840713018 175799514 -708444420
            -866857334 -886309393 -1151143201 -1714564025</internalNodes>
          <leafValues>
            -5.2568316459655762e-01 5.5703324079513550e-01</leafValues></_></weakClassifiers></_>
    <!-- stage 5 -->
    <_>
      <maxWeakCount>7</maxWeakCount>
      <stageThreshold>-1.3483856916427612e+00</stageThreshold>
      <weakClassifiers>
        <_>
          <internalNodes>
            0 -1 124 -268963926 632602345 -1090609222 11534014
            -1258317936 234641781 -4211712 1367342079</internalNodes>
          <leafValues>
            -4.2641508579254150e-01 5.8504670858383179e-01</leafValues></_>
        <_>
          <internalNodes>
            0 -1 80 -104598558 26338562 755089732 -2142121895
            -1877885256 1220776320 1212451339 1661195019</internalNodes>
          <leafValues>
            -5.7648503780364990e-01 4.4882413744926453e-01</leafValues></_>
        <_>
          <internalNodes>
            0 -1 102 -138161176 -115358973 1073780926 -721125366
            1074171968 420491650 -2038330284 -625490017</internalNodes>
          <leafValues>
            -5.3752499818801880e-01 4.5091277360916138e-01</leafValues></_>
        <_>
          <internalNodes>
            0 -1 3 1174794424 -786738488 285213708 -752549746 1350599882
            539138054 -1467725574 1078672447</internalNodes>
          <leafValues>
            -6.8839782476425171e-01 3.8907971978187561e-01</leafValues></_>
        <_>
          <internalNodes>
            0 -1 105 -529341750 -197057902 -1410277759 -746222453
            -1705384752 -2077434352 -411916849 -1282673233</internalNodes>
          <leafValues>
            -3.9240393042564392e-01 7.2701388597488403e-01</leafValues></_>
        <_>
          <internalNodes>
            0 -1 104 -34867825 -1029346742 2146942079 -236455764
            1953300251 -163283852 1698747931 -729310057</internalNodes>
          <leafValues>
            -3.6574229598045349e-01 7.1157312393188477e-01</leafValues></_>
        <_>
          <internalNodes>
            0 -1 118 -538070293 799717950 -386453583 1534275906
            2130689466 218045951 552963208 1542943991</internalNodes>
          <leafValues>
            -5.1168066263198853e-01 5.6110590696334839e-01</leafValues></_></weakClassifiers></_>
    <!-- stage 6 -->
    <_>
      <maxWeakCount>7</maxWeakCount>
      <stageThreshold>-6.6270488500595093e-01</stageThreshold>
      <weakClassifiers>
        <_>
          <internalNodes>
            0 -1 21 -1294482560 -753844160 1377911872 1434141728 671845
            -2097086460 98931 6517264</internalNodes>
          <leafValues>
            -6.1609905958175659e-01 4.6906813979148865e-01</leafValues></_>
        <_>
          <internalNodes>
            0 -1 110 -165301228 474033939 -798161131 994922753
            -1610440592 -1650835328 1375994576 -1306283181</internalNodes>
          <leafValues>
            -4.7878447175025940e-01 4.9026054143905640e-01</leafValues></_>
        <_>
          <internalNodes>
            0 -1 85 -969685818 -2076049264 286262418 1352664147
            -1556012256 -1912077821 -2128199659 -1886996449</internalNodes>
          <leafValues>
            -5.6070333719253540e-01 4.3613636493682861e-01</leafValues></_>
        <_>
          <internalNodes>
            0 -1 8 -209631098 998310208 33640723 1392672849 69736472
            1057245600 -939444742 2064320680</internalNodes>
          <leafValues>
            -5.7982784509658813e-01 4.0984970331192017e-01</leafValues></_>
        <_>
          <internalNodes>
            0 -1 33 2039929554 -1826578162 271661206 -1824489340
            134758939 438960531 167895804 -36482741</internalNodes>
          <leafValues>
            -4.6223324537277222e-01 5.4004073143005371e-01</leafValues></_>
        <_>
          <internalNodes>
            0 -1 129 -1366082927 -406136862 -104959354 -788350272
            1286528394 -193691905 1139239370 -584321857</internalNodes>
          <leafValues>
            -4.4414195418357849e-01 5.5365592241287231e-01</leafValues></_>
        <_>
          <internalNodes>
            0 -1 86 -521666872 -1365210898 -454492420 -1687685159
            -164975314 -676659482 1088941724 -531648261</internalNodes>
          <leafValues>
            -4.9003183841705322e-01 5.5698078870773315e-01</leafValues></_></weakClassifiers></_>
    <!-- stage 7 -->
    <_>
      <maxWeakCount>9</maxWeakCount>
      <stageThreshold>-1.0383715629577637e+00</stageThreshold>
      <weakClassifiers>
        <_>
          <internalNodes>
            0 -1 122 1385005076 436834333 277086683 411505201
            -1608347008 -1975285748 268567032 571617410</internalNodes>
          <leafValues>
            -5.8695650100708008e-01 5.0000000000000000e-01</leafValues></_>
        <_>
          <internalNodes>
            0 -1 97 -1584209708 588439694 1527780568 496240778 680241592
            973212323 134719688 253701802</internalNodes>
          <leafValues>
            -6.9336897134780884e-01 3.4321939945220947e-01</leafValues></_>
        <_>
          <internalNodes>
            0 -1 72 -2134761344 -398393322 335888384 960561233 444842481
            -131334142 337832115 1306479675</internalNodes>
          <leafValues>
            -5.7719707489013672e-01 4.0698611736297607e-01</leafValues></_>
        <_>
          <internalNodes>
            0 -1 88 664958397 -1322494687 805589119 1033163857
            -1442829845 -1433886555 -500692821 1100450130</internalNodes>
          <leafValues>
            -5.1234602928161621e-01 4.4561162590980530e-01</leafValues></_>
        <_>
          <internalNodes>
            0 -1 131 -270432619 -210505867 1608515003 1864062829
            1002354683 -1082786050 -968100365 -1710782717</internalNodes>
          <leafValues>
            -3.6269989609718323e-01 6.3277441263198853e-01</leafValues></_>
        <_>
          <internalNodes>
            0 -1 70 -1786513382 269582656 -1811472143 -1927440983
            142610656 -830269222 71451529 218137326</internalNodes>
          <leafValues>
            -6.0679632425308228e-01 3.9251086115837097e-01</leafValues></_>
        <_>
          <internalNodes>
            0 -1 7 -739161682 -200269689 1359054671 2131230756 302155915
            -1962729341 -1434089183 823380686</internalNodes>
          <leafValues>
            -5.3263896703720093e-01 4.7418132424354553e-01</leafValues></_>
        <_>
          <internalNodes>
            0 -1 71 570865346 798181459 1358988097 -685951743
            -2109693685 -13991936 1132954268 97223145</internalNodes>
          <leafValues>
            -5.7300823926925659e-01 4.5050892233848572e-01</leafValues></_>
        <_>
          <internalNodes>
            0 -1 54 -933653948 1901617319 405013101 -1172627427 17138316
            1217024009 -1639715878 3349314</internalNodes>
          <leafValues>
            -6.3718891143798828e-01 4.1662007570266724e-01</leafValues></_></weakClassifiers></_>
    <!-- stage 8 -->
    <_>
      <maxWeakCount>9</maxWeakCount>
      <stageThreshold>-8.3537542819976807e-01</stageThreshold>
      <weakClassifiers>
        <_>
          <internalNodes>
            0 -1 139 1941765876 -925052760 -1434126560 7071936 -22165028
            1288985805 1985772495 1145822687</internalNodes>
          <leafValues>
            -4.0862423181533813e-01 5.3818506002426147e-01</leafValues></_>
        <_>
          <internalNodes>
            0 -1 11 1902076158 1729691715 -1937497960 84576462 428361934
            973406248 1212696844 2132212447</internalNodes>
          <leafValues>
            -5.2342528104782104e-01 4.1191139817237854e-01</leafValues></_>
        <_>
          <internalNodes>
            0 -1 93 1443355639 -1162722298 268441630 -1945026351
            -532641375 -1467544916 -528345979 -1618867769</internalNodes>
          <leafValues>
            -4.4855454564094543e-01 4.7899240255355835e-01</leafValues></_>
        <_>
          <internalNodes>
            0 -1 147 -50862657 -2069262420 -18092246 11337659 1226814647
            -570597643 926716352 -68437019</internalNodes>
          <leafValues>
            -3.9631396532058716e-01 5.6009072065353394e-01</leafValues></_>
        <_>
          <internalNodes>
            0 -1 130 -1520908420 -174927600 -1693134540 1602806404
            -2143109118 -1827107712 -1065311672 -610010869</internalNodes>
          <leafValues>
            -5.3071236610412598e-01 4.5564621686935425e-01</leafValues></_>
        <_>
          <internalNodes>
            0 -1 117 -955780920 -745177080 32772 30806088 -1342136183
            -1727905790 1174419722 398706736</internalNodes>
          <leafValues>
            -5.7554954290390015e-01 4.3271535634994507e-01</leafValues></_>
        <_>
          <internalNodes>
            0 -1 13 -751139118 -716289727 4333972 1308644372 -1979117436
            -12549372 -750024319 1111739078</internalNodes>
          <leafValues>
            -6.6435635089874268e-01 3.8148182630538940e-01</leafValues></_>
        <_>
          <internalNodes>
            0 -1 160 -944516976 -648003584 83032 -787464163 -1735871942
            -1006632704 1074844066 1261551715</internalNodes>
          <leafValues>
            -5.3966271877288818e-01 4.7911366820335388e-01</leafValues></_>
        <_>
          <internalNodes>
            0 -1 112 -934299622 -259466920 -2147182547 -802537342
            -896306630 -1778384895 -402519822 1997200058</internalNodes>
          <leafValues>
            -5.6613427400588989e-01 4.6729531884193420e-01</leafValues></_></weakClassifiers></_>
    <!-- stage 9 -->
    <_>
      <maxWeakCount>9</maxWeakCount>
      <stageThreshold>-9.2103797197341919e-01</stageThreshold>
      <weakClassifiers>
        <_>
          <internalNodes>
            0 -1 35 -782925610 5095939 1073746152 909225985 545826973
            1255768064 134744256 19729418</internalNodes>
          <leafValues>
            -6.6206896305084229e-01 4.5190840959548950e-01</leafValues></_>
        <_>
          <internalNodes>
            0 -1 113 -584402722 -2113929084 -1005846406 1902125210
            273777800 405930244 268505750 1845068427</internalNodes>
          <leafValues>
            -5.2500468492507935e-01 3.7270617485046387e-01</leafValues></_>
        <_>
          <internalNodes>
            0 -1 67 -1698196268 1543404075 -1459694379 874773559
            -1158160715 -79335801 -1295567131 -1706388989</internalNodes>
          <leafValues>
            -4.2914783954620361e-01 4.7043776512145996e-01</leafValues></_>
        <_>
          <internalNodes>
            0 -1 45 -719728178 72323473 319347161 609308974 -2012620455
            923336720 -922205980 -359697977</internalNodes>
          <leafValues>
            -5.5242425203323364e-01 3.7821474671363831e-01</leafValues></_>
        <_>
          <internalNodes>
            0 -1 106 -2122211090 -1068625854 134223885 -779890667
            151122060 -385628160 557046283 1558910219</internalNodes>
          <leafValues>
            -5.1306855678558350e-01 4.1118144989013672e-01</leafValues></_>
        <_>
          <internalNodes>
            0 -1 109 413417484 1400967361 1229004805 1258490579
            -1325334144 -525659872 -1324753447 571500317</internalNodes>
          <leafValues>
            -6.3247472047805786e-01 3.5576224327087402e-01</leafValues></_>
        <_>
          <internalNodes>
            0 -1 28 -1720325934 1359687953 58757146 878449683 302269436
            310378817 1881295096 -1088175473</internalNodes>
          <leafValues>
            -4.8495009541511536e-01 4.8215389251708984e-01</leafValues></_>
        <_>
          <internalNodes>
            0 -1 76 -121635331 -1632632846 1030793339 -1578145605
            1014836989 -1519028739 -2135596872 -373862121</internalNodes>
          <leafValues>
            -4.2941430211067200e-01 5.7348024845123291e-01</leafValues></_>
        <_>
          <internalNodes>
            0 -1 129 -498519551 -1052769897 285235336 272667442
            -1002389118 -133087223 1134270354 -1964521025</internalNodes>
          <leafValues>
            -4.8296600580215454e-01 5.0732433795928955e-01</leafValues></_></weakClassifiers></_>
    <!-- stage 10 -->
    <_>
      <maxWeakCount>9</maxWeakCount>
      <stageThreshold>-9.4746756553649902e-01</stageThreshold>
      <weakClassifiers>
        <_>
          <internalNodes>
            0 -1 96 -2039582426 -992737193 554713364 360994178 621254468
            303260225 -1542909172 5396342</internalNodes>
          <leafValues>
            -5.8842444419860840e-01 4.5228859782218933e-01</leafValues></_>
        <_>
          <internalNodes>
            0 -1 41 -740527619 1967161488 688920924 688079380
            -1207934572 -662124512 1209641641 974764839</internalNodes>
          <leafValues>
            -4.2912596464157104e-01 4.3734386563301086e-01</leafValues></_>
        <_>
          <internalNodes>
            0 -1 0 -267192170 991494293 172244 1359255622 1812028645
            939873089 302647956 2121684747</internalNodes>
          <leafValues>
            -5.0657391548156738e-01 4.3052586913108826e-01</leafValues></_>
        <_>
          <internalNodes>
            0 -1 31 285972815 -721288511 285213171 -817298107 -401515688
            112233488 -535799336 1161156483</internalNodes>
          <leafValues>
            -5.2005469799041748e-01 3.8530877232551575e-01</leafValues></_>
        <_>
          <internalNodes>
            0 -1 78 -1789944583 1099016453 83923848 1284272341
            1115817088 1778452109 1512178570 1567498898</internalNodes>
          <leafValues>
            -5.3346872329711914e-01 3.9740455150604248e-01</leafValues></_>
        <_>
          <internalNodes>
            0 -1 62 -285282313 -1568997637 -856498188 1371793138
            -671665164 -218103877 1540741624 -304136130</internalNodes>
          <leafValues>
            -4.2754167318344116e-01 5.3235095739364624e-01</leafValues></_>
        <_>
          <internalNodes>
            0 -1 155 -1344943456 14940150 2129391119 -1587106074
            970921384 -1602814030 -177358710 -206834099</internalNodes>
          <leafValues>
            -4.5888188481330872e-01 5.0122433900833130e-01</leafValues></_>
        <_>
          <internalNodes>
            0 -1 134 2037824244 495052032 -1272805332 503480706
            -377225023 -1735868410 -2004246008 425024971</internalNodes>
          <leafValues>
            -6.4647269248962402e-01 3.6514258384704590e-01</leafValues></_>
        <_>
          <internalNodes>
            0 -1 111 -2112986326 -1739304302 1199625240 -735887358
            -1044237706 1250426899 -1777688308 1918777276</internalNodes>
          <leafValues>
            -6.7880964279174805e-01 3.6050692200660706e-01</leafValues></_></weakClassifiers></_>
    <!-- stage 11 -->
    <_>
      <maxWeakCount>8</maxWeakCount>
      <stageThreshold>-1.0435743331909180e+00</stageThreshold>
      <weakClassifiers>
        <_>
          <internalNodes>
            0 -1 89 -1132102 96321192 -17002973 -2000891981 -1635786755
            1480540116 -1057277475 136439603</internalNodes>
          <leafValues>
            -4.3115124106407166e-01 5.1080381870269775e-01</leafValues></_>
        <_>
          <internalNodes>
            0 -1 148 -698691368 319680430 401438957 1558018669 -33051120
            548403562 118632065 -576194690</internalNodes>
          <leafValues>
            -4.1738343238830566e-01 4.7555631399154663e-01</leafValues></_>
        <_>
          <internalNodes>
            0 -1 15 -1700024630 -618378623 -1006596838 1388319007
            -527725932 -1245183997 -798520372 32034696</internalNodes>
          <leafValues>
            -5.9707736968994141e-01 3.5110467672348022e-01</leafValues></_>
        <_>
          <internalNodes>
            0 -1 2 1371472774 -1583365782 -1055778040 -997474112
            -1602188889 639639596 9142355 2013246789</internalNodes>
          <leafValues>
            -6.0478091239929199e-01 3.6838200688362122e-01</leafValues></_>
        <_>
          <internalNodes>
            0 -1 115 -572522757 401586859 -21059920 -68306277
            -2064255621 -1930118323 -1993882373 -573120549</internalNodes>
          <leafValues>
            -3.3778950572013855e-01 7.0563536882400513e-01</leafValues></_>
        <_>
          <internalNodes>
            0 -1 12 -1055402450 722833808 1166090258 923336973
            1381702218 1845756714 25725169 992657842</internalNodes>
          <leafValues>
            -6.3148540258407593e-01 3.8079801201820374e-01</leafValues></_>
        <_>
          <internalNodes>
            0 -1 82 233036536 -2126587940 -1897267465 -642789961
            -1353777588 216391114 -1016088453 -542654456</internalNodes>
          <leafValues>
            -4.1938883066177368e-01 5.3772902488708496e-01</leafValues></_>
        <_>
          <internalNodes>
            0 -1 66 788683346 339824785 1091628953 1895832913 143661865
            -1425539064 -1702326139 -1094563808</internalNodes>
          <leafValues>
            -5.3191894292831421e-01 4.3266174197196960e-01</leafValues></_></weakClassifiers></_>
    <!-- stage 12 -->
    <_>
      <maxWeakCount>9</maxWeakCount>
      <stageThreshold>-8.1840848922729492e-01</stageThreshold>
      <weakClassifiers>
        <_>
          <internalNodes>
            0 -1 43 167247622 -1090523484 -2065 -38801503 -437010663
            -1632410633 845447036 -1603992765</internalNodes>
          <leafValues>
            -2.7960526943206787e-01 5.7459676265716553e-01</leafValues></_>
        <_>
          <internalNodes>
            0 -1 58 -840422396 -1202453801 755242713 -82310488 671670771
            -99941605 -1474264689 185123080</internalNodes>
          <leafValues>
            -5.2783942222595215e-01 3.5643923282623291e-01</leafValues></_>
        <_>
          <internalNodes>
            0 -1 57 179504953 805094637 654273389 536031119 -671592704
            -880660 265158113 -1881746104</internalNodes>
          <leafValues>
            -4.0931215882301331e-01 4.6224638819694519e-01</leafValues></_>
        <_>
          <internalNodes>
            0 -1 138 -49087270 -1308520288 -1073183264 1355502082
            -1844019030 -1572339532 142788266 1963643019</internalNodes>
          <leafValues>
            -4.7697234153747559e-01 4.1203182935714722e-01</leafValues></_>
        <_>
          <internalNodes>
            0 -1 135 -1031617436 -527640448 134496292 1889503496
            -396320728 -1165293430 713711915 -108985513</internalNodes>
          <leafValues>
            -6.6304171085357666e-01 3.1566178798675537e-01</leafValues></_>
        <_>
          <internalNodes>
            0 -1 123 -1727005724 1132629557 -712994813 85250439
            -934541727 -90177120 -1993813090 174326282</internalNodes>
          <leafValues>
            -6.3476628065109253e-01 3.7570419907569885e-01</leafValues></_>
        <_>
          <internalNodes>
            0 -1 64 183756627 -231030801 -537657602 -391119126
            -1903661860 -1570319106 -686596099 -82464856</internalNodes>
          <leafValues>
            -4.3755725026130676e-01 5.3702372312545776e-01</leafValues></_>
        <_>
          <internalNodes>
            0 -1 159 728206827 1127956996 302178455 -1408783994
            1139001738 -218025855 33544 -553037050</internalNodes>
          <leafValues>
            -4.6335834264755249e-01 5.1267367601394653e-01</leafValues></_>
        <_>
          <internalNodes>
            0 -1 39 1594118997 1131431064 83887164 -1558769518
            -1400813496 301334600 537412266 1594850442</internalNodes>
          <leafValues>
            -5.1057589054107666e-01 4.4715675711631775e-01</leafValues></_></weakClassifiers></_>
    <!-- stage 13 -->
    <_>
      <maxWeakCount>9</maxWeakCount>
      <stageThreshold>-6.0382616519927979e-01</stageThreshold>
      <weakClassifiers>
        <_>
          <internalNodes>
            0 -1 32 -1936588654 1178599688 -1593816952 -117207037
            -1052082023 1170948483 1082230924 887029806</internalNodes>
          <leafValues>
            -5.8199357986450195e-01 4.5073699951171875e-01</leafValues></_>
        <_>
          <internalNodes>
            0 -1 19 -2084509790 -1258012216 319575427 -576806110 361096
            -1935079164 -1817648190 -962805627</internalNodes>
          <leafValues>
            -4.3072336912155151e-01 4.3046128749847412e-01</leafValues></_>
        <_>
          <internalNodes>
            0 -1 101 1206380619 1481237185 1266302157 -175768321
            -319496502 -559218706 -203228328 -271738899</internalNodes>
          <leafValues>
            -2.6813119649887085e-01 6.9076120853424072e-01</leafValues></_>
        <_>
          <internalNodes>
            0 -1 40 -754460578 830837138 -1962634021 227754499
            -1609838453 399476877 396820 -271716077</internalNodes>
          <leafValues>
            -4.2833447456359863e-01 4.6796932816505432e-01</leafValues></_>
        <_>
          <internalNodes>
            0 -1 149 -1064318590 -1001351925 8397129 -1799157751
            583770610 1669345794 -2139055910 -146737915</internalNodes>
          <leafValues>
            -5.0292581319808960e-01 4.2488524317741394e-01</leafValues></_>
        <_>
          <internalNodes>
            0 -1 73 637523790 -502115122 553746785 -1843918818 113487975
            -1599979505 421619447 491641224</internalNodes>
          <leafValues>
            -5.8024168014526367e-01 3.7587073445320129e-01</leafValues></_>
        <_>
          <internalNodes>
            0 -1 68 -1702507773 -791502585 -788119546 -2025454719
            1227088088 134320769 -744424154 13361917</internalNodes>
          <leafValues>
            -5.4626888036727905e-01 3.9774405956268311e-01</leafValues></_>
        <_>
          <internalNodes>
            0 -1 48 1918536906 1090814218 276873601 1224836109 806207630
            1074823304 1023582915 692813866</internalNodes>
          <leafValues>
            -5.4806393384933472e-01 4.3085750937461853e-01</leafValues></_>
        <_>
          <internalNodes>
            0 -1 128 -1541021429 1836211440 -1277969 691623768
            1843984009 -2063311457 -202837393 1416888031</internalNodes>
          <leafValues>
            -4.2114382982254028e-01 5.7298940420150757e-01</leafValues></_></weakClassifiers></_>
    <!-- stage 14 -->
    <_>
      <maxWeakCount>9</maxWeakCount>
      <stageThreshold>-6.0333228111267090e-01</stageThreshold>
      <weakClassifiers>
        <_>
          <internalNodes>
            0 -1 83 -1873423982 226541734 268763408 -1593829758 10587281
            427721241 357047042 85210140</internalNodes>
          <leafValues>
            -5.3799390792846680e-01 4.5397326350212097e-01</leafValues></_>
        <_>
          <internalNodes>
            0 -1 158 488595858 -2079123117 -1044167148 84066432
            -704538288 12947857 -108402480 1711266021</internalNodes>
          <leafValues>
            -5.2485477924346924e-01 3.4331607818603516e-01</leafValues></_>
        <_>
          <internalNodes>
            0 -1 140 -598339260 -1761890574 -826280833 2142207921
            -839621449 -319488129 -1781762135 -119002091</internalNodes>
          <leafValues>
            -4.0897729992866516e-01 4.8650816082954407e-01</leafValues></_>
        <_>
          <internalNodes>
            0 -1 121 -698157862 -207042898 1965260060 -620984989
            -1630763822 -698036793 -218978317 -1047589377</internalNodes>
          <leafValues>
            -3.5506847500801086e-01 5.8865922689437866e-01</leafValues></_>
        <_>
          <internalNodes>
            0 -1 137 2075982783 -1079443592 -1358971201 1270720441
            2104922271 230407677 -1233378631 -141573</internalNodes>
          <leafValues>
            -3.6264514923095703e-01 6.0808300971984863e-01</leafValues></_>
        <_>
          <internalNodes>
            0 -1 94 -959189964 808554513 352403845 475598985 -1432583872
            520096136 -284982872 584424115</internalNodes>
          <leafValues>
            -5.7015067338943481e-01 3.9543995261192322e-01</leafValues></_>
        <_>
          <internalNodes>
            0 -1 154 -2004623052 -1378761910 16799557 -95320811
            1091480486 -619474934 1384550591 -1643264068</internalNodes>
          <leafValues>
            -4.6720081567764282e-01 5.1760447025299072e-01</leafValues></_>
        <_>
          <internalNodes>
            0 -1 75 2146235002 -123142147 -286266637 263315185 502361470
            -1804173828 517955357 -1694914862</internalNodes>
          <leafValues>
            -4.0936940908432007e-01 5.6171011924743652e-01</leafValues></_>
        <_>
          <internalNodes>
            0 -1 9 1352155474 -1868742242 -1726446602 1158891912
            -1069052773 -1324283712 1754933250 289485632</internalNodes>
          <leafValues>
            -7.6384264230728149e-01 3.2246103882789612e-01</leafValues></_></weakClassifiers></_>
    <!-- stage 15 -->
    <_>
      <maxWeakCount>9</maxWeakCount>
      <stageThreshold>-7.8630393743515015e-01</stageThreshold>
      <weakClassifiers>
        <_>
          <internalNodes>
            0 -1 47 574917378 -1535964633 17384582 -150867567 -105729530
            1073874324 44435524 1262831187</internalNodes>
          <leafValues>
            -5.4682779312133789e-01 4.5784083008766174e-01</leafValues></_>
        <_>
          <internalNodes>
            0 -1 87 498859519 -794627646 2145631904 -639772469
            -814859588 -130351251 2143492622 -782822689</internalNodes>
          <leafValues>
            -3.3015939593315125e-01 5.3956925868988037e-01</leafValues></_>
        <_>
          <internalNodes>
            0 -1 16 -1549732365 -202709278 -1073743497 1471537830
            -436897379 -605133588 -141165061 -661284491</internalNodes>
          <leafValues>
            -3.3237984776496887e-01 5.8756828308105469e-01</leafValues></_>
        <_>
          <internalNodes>
            0 -1 37 -502632158 -410615356 -1274478320 -1316186169
            -1534048221 109721838 -1744682782 1197919810</internalNodes>
          <leafValues>
            -5.9464424848556519e-01 3.1178557872772217e-01</leafValues></_>
        <_>
          <internalNodes>
            0 -1 61 -1857307937 -2115974774 277188701 -486096810 4366505
            -1694433023 -158520324 710493859</internalNodes>
          <leafValues>
            -4.5214784145355225e-01 4.2496103048324585e-01</leafValues></_>
        <_>
          <internalNodes>
            0 -1 49 -610773517 -267877352 419498076 390148372 570554556
            -368525280 287879848 41128268</internalNodes>
          <leafValues>
            -5.4402226209640503e-01 3.8496038317680359e-01</leafValues></_>
        <_>
          <internalNodes>
            0 -1 4 2080536954 -1874814955 1075004606 -783675064
            1628465269 302317714 2013799708 -259905302</internalNodes>
          <leafValues>
            -5.4067808389663696e-01 4.0550941228866577e-01</leafValues></_>
        <_>
          <internalNodes>
            0 -1 132 248193064 -1707730703 37143 429613125 -1962752623
            -820346688 1260519556 -1741157735</internalNodes>
          <leafValues>
            -5.5183678865432739e-01 3.8090008497238159e-01</leafValues></_>
        <_>
          <internalNodes>
            0 -1 60 -2092733818 -1675010024 288374850 1090642153
            100991494 -569769722 294518965 1174736571</internalNodes>
          <leafValues>
            -6.0997432470321655e-01 3.7666609883308411e-01</leafValues></_></weakClassifiers></_>
    <!-- stage 16 -->
    <_>
      <maxWeakCount>11</maxWeakCount>
      <stageThreshold>-7.0605653524398804e-01</stageThreshold>
      <weakClassifiers>
        <_>
          <internalNodes>
            0 -1 153 -756581056 -2098206749 -16781725 -1293223193
            2130667332 -1585643841 2138939340 14482007</internalNodes>
          <leafValues>
            -3.8362067937850952e-01 5.0880283117294312e-01</leafValues></_>
        <_>
          <internalNodes>
            0 -1 92 147477442 -1068556286 1678301798 -469762039
            -1048540710 -1249246806 1091273319 1845354715</internalNodes>
          <leafValues>
            -5.6629621982574463e-01 3.2534956932067871e-01</leafValues></_>
        <_>
          <internalNodes>
            0 -1 65 -379366031 -1736310768 335620311 356729031
            -1543494514 -2004506592 369721403 432505081</internalNodes>
          <leafValues>
            -4.3012925982475281e-01 4.5441070199012756e-01</leafValues></_>
        <_>
          <internalNodes>
            0 -1 91 -858270782 -1073200890 304370132 -1049902460
            1127025154 -1559625600 1124143523 -683299110</internalNodes>
          <leafValues>
            -5.3378087282180786e-01 3.5457608103752136e-01</leafValues></_>
        <_>
          <internalNodes>
            0 -1 152 -837333939 1243480459 754685 18907458 1283485902
            1229138058 -2004794198 -501054447</internalNodes>
          <leafValues>
            -5.0131171941757202e-01 4.0353122353553772e-01</leafValues></_>
        <_>
          <internalNodes>
            0 -1 23 -71317045 1999783284 2080349358 -67174465
            -1359787029 1427396596 -545847590 -608700577</internalNodes>
          <leafValues>
            -3.8224470615386963e-01 5.9718608856201172e-01</leafValues></_>
        <_>
          <internalNodes>
            0 -1 6 1564481367 -972406609 -2122263120 1681952770
            1900186470 1325449218 1375797251 1995404299</internalNodes>
          <leafValues>
            -5.9185153245925903e-01 3.7993869185447693e-01</leafValues></_>
        <_>
          <internalNodes>
            0 -1 145 -51910014 -689817141 -204873319 -53221716
            -235179312 -61114376 1421013978 -787218792</internalNodes>
          <leafValues>
            -4.3119305372238159e-01 5.3153347969055176e-01</leafValues></_>
        <_>
          <internalNodes>
            0 -1 38 1544750165 -1765650291 604507216 -1173899260
            -1879015388 -1302102015 142654097 1808553602</internalNodes>
          <leafValues>
            -4.7511637210845947e-01 4.8222041130065918e-01</leafValues></_>
        <_>
          <internalNodes>
            0 -1 55 2091829864 -872813141 963575387 1068202079
            -1938972786 399228798 123587519 1502064895</internalNodes>
          <leafValues>
            -4.7583076357841492e-01 5.2765107154846191e-01</leafValues></_>
        <_>
          <internalNodes>
            0 -1 84 -1232420174 -1878441984 16777498 -183582707
            -1878653982 67534859 39436767 1385144840</internalNodes>
          <leafValues>
            -5.5716508626937866e-01 4.2491915822029114e-01</leafValues></_></weakClassifiers></_>
    <!-- stage 17 -->
    <_>
      <maxWeakCount>10</maxWeakCount>
      <stageThreshold>-7.2410362958908081e-01</stageThreshold>
      <weakClassifiers>
        <_>
          <internalNodes>
            0 -1 90 -2084908464 -1592715582 150995464 -1939790818
            -1534875484 1258475857 -1794798976 236268082</internalNodes>
          <leafValues>
            -6.0544216632843018e-01 4.4257274270057678e-01</leafValues></_>
        <_>
          <internalNodes>
            0 -1 157 535297423 216901550 -1883258897 -924451169
            -714081468 167534404 -1745539135 -878453200</internalNodes>
          <leafValues>
            -3.9140018820762634e-01 4.4899952411651611e-01</leafValues></_>
        <_>
          <internalNodes>
            0 -1 99 -1606291456 1284641365 -1073740789 1562050828
            -1064793856 -1164801914 -1954487629 -12533371</internalNodes>
          <leafValues>
            -4.5883265137672424e-01 4.3063485622406006e-01</leafValues></_>
        <_>
          <internalNodes>
            0 -1 29 240878620 530892673 1342325513 -242691711 671615125
            135201409 1632307404 1465069862</internalNodes>
          <leafValues>
            -6.6444420814514160e-01 2.8269231319427490e-01</leafValues></_>
        <_>
          <internalNodes>
            0 -1 36 -833989956 1208058048 1342771312 24516828 -654013940
            -2147464960 152621191 655949919</internalNodes>
          <leafValues>
            -5.7180452346801758e-01 3.3429330587387085e-01</leafValues></_>
        <_>
          <internalNodes>
            0 -1 141 1373370154 1359367172 -2130341812 872649348
            209789390 -1891596160 2262160 -750427891</internalNodes>
          <leafValues>
            -5.6792664527893066e-01 3.5350146889686584e-01</leafValues></_>
        <_>
          <internalNodes>
            0 -1 108 961031385 -1800881792 -939304163 -1656009728
            344089080 -1182056016 1552025867 1492836628</internalNodes>
          <leafValues>
            -4.6457839012145996e-01 4.5547339320182800e-01</leafValues></_>
        <_>
          <internalNodes>
            0 -1 95 -805673028 -1543784450 -135265 -1275237385
            -874070104 -1849761881 2138238956 -1010716909</internalNodes>
          <leafValues>
            -4.0053731203079224e-01 5.2029210329055786e-01</leafValues></_>
        <_>
          <internalNodes>
            0 -1 77 -1983555110 -1810843504 -1342058134 876909627
            -400883033 -2046328504 420184717 1672829381</internalNodes>
          <leafValues>
            -5.6573802232742310e-01 3.6955916881561279e-01</leafValues></_>
        <_>
          <internalNodes>
            0 -1 126 1428662231 193519897 872499496 -1005483904
            1410007224 58753689 1611399314 1556187028</internalNodes>
          <leafValues>
            -5.3792911767959595e-01 4.2456677556037903e-01</leafValues></_></weakClassifiers></_>
    <!-- stage 18 -->
    <_>
      <maxWeakCount>9</maxWeakCount>
      <stageThreshold>-6.8240624666213989e-01</stageThreshold>
      <weakClassifiers>
        <_>
          <internalNodes>
            0 -1 63 21168844 100991458 67243536 -1790627568 -1056241620
            -2096379384 -1374269756 608571152</internalNodes>
          <leafValues>
            -7.0040488243103027e-01 4.2350333929061890e-01</leafValues></_>
        <_>
          <internalNodes>
            0 -1 53 318413451 -1360199713 -352323847 -704974103
            -2116692799 1450833713 376168245 -293866987</internalNodes>
          <leafValues>
            -3.8554817438125610e-01 4.4010603427886963e-01</leafValues></_>
        <_>
          <internalNodes>
            0 -1 114 -67579684 1630812750 -1209327012 -714214779
            -1896155480 -906562202 1163327162 -211566726</internalNodes>
          <leafValues>
            -2.9173150658607483e-01 6.2468546628952026e-01</leafValues></_>
        <_>
          <internalNodes>
            0 -1 74 -721332839 -1174253533 5754 -1117548263 -1981791997
            -2001879800 -1740108923 -393666653</internalNodes>
          <leafValues>
            -3.8222190737724304e-01 4.7938078641891479e-01</leafValues></_>
        <_>
          <internalNodes>
            0 -1 116 -1655514304 -131202940 620885252 -45088431
            -503152388 -1171715966 -2139043159 1526759564</internalNodes>
          <leafValues>
            -5.1933974027633667e-01 3.9952298998832703e-01</leafValues></_>
        <_>
          <internalNodes>
            0 -1 107 -1313734956 -930462586 1074365464 1485377877
            671156364 1224769568 738258882 -174126757</internalNodes>
          <leafValues>
            -4.7995585203170776e-01 4.3543836474418640e-01</leafValues></_>
        <_>
          <internalNodes>
            0 -1 22 590554377 -1570766592 -670972871 1946882315
            -2113082842 562151648 1291985792 661969416</internalNodes>
          <leafValues>
            -5.6787836551666260e-01 3.8840997219085693e-01</leafValues></_>
        <_>
          <internalNodes>
            0 -1 125 -221793256 2014352647 286331281 -1727823545
            -1702195053 -1966489416 1161898665 679735603</internalNodes>
          <leafValues>
            -5.0789928436279297e-01 4.5905733108520508e-01</leafValues></_>
        <_>
          <internalNodes>
            0 -1 25 -396502017 1352827009 17303873 1346830887 303602005
            -2130673480 -2080302317 1712802306</internalNodes>
          <leafValues>
            -4.9354487657546997e-01 4.5176815986633301e-01</leafValues></_></weakClassifiers></_>
    <!-- stage 19 -->
    <_>
      <maxWeakCount>11</maxWeakCount>
      <stageThreshold>-8.9230406284332275e-01</stageThreshold>
      <weakClassifiers>
        <_>
          <internalNodes>
            0 -1 119 -411906336 -965477656 1942418882 1264043998
            632486304 -232753582 876765106 84147420</internalNodes>
          <leafValues>
            -3.8888889551162720e-01 4.8630136251449585e-01</leafValues></_>
        <_>
          <internalNodes>
            0 -1 144 -555095298 -705892484 108000063 -583025504 -421749
            -1284582 22344059 -640817783</internalNodes>
          <leafValues>
            -2.9031878709793091e-01 6.0179537534713745e-01</leafValues></_>
        <_>
          <internalNodes>
            0 -1 27 -431962128 -1617918847 50860053 95197972 840466908
            -1710552694 -939484661 103019016</internalNodes>
          <leafValues>
            -5.4017651081085205e-01 3.4342294931411743e-01</leafValues></_>
        <_>
          <internalNodes>
            0 -1 150 1609530815 284612088 -167903615 399762887
            -793045588 -178823740 -436235031 -36434081</internalNodes>
          <leafValues>
            -3.3255264163017273e-01 5.4568320512771606e-01</leafValues></_>
        <_>
          <internalNodes>
            0 -1 120 1308621561 501660074 -1141130824 -1429778
            -1897610092 -1193970492 951467295 -1883742670</internalNodes>
          <leafValues>
            -3.9764800667762756e-01 5.0454080104827881e-01</leafValues></_>
        <_>
          <internalNodes>
            0 -1 138 -716312368 -477776296 1279308235 1477382187
            -1744655222 -1543495584 413208811 1890488363</internalNodes>
          <leafValues>
            -4.9197605252265930e-01 3.9710077643394470e-01</leafValues></_>
        <_>
          <internalNodes>
            0 -1 81 234783634 1408085796 -42256647 -201360354 -97527851
            -18424786 364367119 -1089661797</internalNodes>
          <leafValues>
            -3.6425808072090149e-01 5.6602323055267334e-01</leafValues></_>
        <_>
          <internalNodes>
            0 -1 146 1584372829 -263232713 -1419004121 -621395997
            -1795204756 -696516745 -1904850960 -1564757144</internalNodes>
          <leafValues>
            -3.6445379257202148e-01 5.7661992311477661e-01</leafValues></_>
        <_>
          <internalNodes>
            0 -1 44 -180293 296730611 -1140854367 1563421487 1342087153
            -1112851073 662023745 -819478620</internalNodes>
          <leafValues>
            -3.5093572735786438e-01 6.4337503910064697e-01</leafValues></_>
        <_>
          <internalNodes>
            0 -1 69 589959578 1763901718 1342390559 1569243723
            -2112185987 -1020787839 -1400862029 260076424</internalNodes>
          <leafValues>
            -5.0742411613464355e-01 4.2779347300529480e-01</leafValues></_>
        <_>
          <internalNodes>
            0 -1 133 1279013240 -952735740 16384 -329826000 -1289264785
            -1073643338 -217603894 -1637672286</internalNodes>
          <leafValues>
            -5.4743546247482300e-01 4.0946662425994873e-01</leafValues></_></weakClassifiers></_></stages>
  <features>
    <_>
      <rect>
        0 13 14 9</rect></_>
    <_>
      <rect>
        0 19 11 7</rect></_>
    <_>
      <rect>
        1 0 16 10</rect></_>
    <_>
      <rect>
        1 6 25 10</rect></_>
    <_>
      <rect>
        1 19 11 7</rect></_>
    <_>
      <rect>
        2 1 13 13</rect></_>
    <_>
      <rect>
        2 6 18 9</rect></_>
    <_>
      <rect>
        4 3 15 10</rect></_>
    <_>
      <rect>
        5 19 25 7</rect></_>
    <_>
      <rect>
        6 0 18 10</rect></_>
    <_>
      <rect>
        7 7 15 11</rect></_>
    <_>
      <rect>
        8 16 11 8</rect></_>
    <_>
      <rect>
        8 22 23 6</rect></_>
    <_>
      <rect>
        10 1 20 7</rect></_>
    <_>
      <rect>
        11 0 9 6</rect></_>
    <_>
      <rect>
        12 0 18 8</rect></_>
    <_>
      <rect>
        12 2 10 6</rect></_>
    <_>
      <rect>
        14 0 12 12</rect></_>
    <_>
      <rect>
        15 1 9 8</rect></_>
    <_>
      <rect>
        15 4 6 6</rect></_>
    <_>
      <rect>
        15 4 18 12</rect></_>
    <_>
      <rect>
        15 6 8 7</rect></_>
    <_>
      <rect>
        15 19 3 4</rect></_>
    <_>
      <rect>
        16 17 7 5</rect></_>
    <_>
      <rect>
        17 6 15 11</rect></_>
    <_>
      <rect>
        18 11 5 6</rect></_>
    <_>
      <rect>
        18 15 14 8</rect></_>
    <_>
      <rect>
        19 0 11 8</rect></_>
    <_>
      <rect>
        19 16 6 8</rect></_>
    <_>
      <rect>
        20 9 10 8</rect></_>
    <_>
      <rect>
        21 7 13 8</rect></_>
    <_>
      <rect>
        21 9 10 4</rect></_>
    <_>
      <rect>
        21 9 12 8</rect></_>
    <_>
      <rect>
        21 15 10 8</rect></_>
    <_>
      <rect>
        22 0 13 8</rect></_>
    <_>
      <rect>
        22 0 15 13</rect></_>
    <_>
      <rect>
        22 21 1 1</rect></_>
    <_>
      <rect>
        23 12 3 4</rect></_>
    <_>
      <rect>
        23 18 12 6</rect></_>
    <_>
      <rect>
        23 19 10 7</rect></_>
    <_>
      <rect>
        24 12 16 8</rect></_>
    <_>
      <rect>
        24 19 12 7</rect></_>
    <_>
      <rect>
        24 20 12 6</rect></_>
    <_>
      <rect>
        25 7 8 7</rect></_>
    <_>
      <rect>
        25 7 14 11</rect></_>
    <_>
      <rect>
        25 13 15 5</rect></_>
    <_>
      <rect>
        26 2 6 12</rect></_>
    <_>
      <rect>
        26 12 8 4</rect></_>
    <_>
      <rect>
        26 13 1 1</rect></_>
    <_>
      <rect>
        26 19 10 6</rect></_>
    <_>
      <rect>
        27 9 11 5</rect></_>
    <_>
      <rect>
        27 10 6 7</rect></_>
    <_>
      <rect>
        28 1 9 13</rect></_>
    <_>
      <rect>
        28 12 3 4</rect></_>
    <_>
      <rect>
        29 0 16 11</rect></_>
    <_>
      <rect>
        29 15 1 1</rect></_>
    <_>
      <rect>
        29 17 7 6</rect></_>
    <_>
      <rect>
        30 0 3 2</rect></_>
    <_>
      <rect>
        30 0 6 6</rect></_>
    <_>
      <rect>
        30 2 7 6</rect></_>
    <_>
      <rect>
        30 13 5 3</rect></_>
    <_>
      <rect>
        30 14 3 5</rect></_>
    <_>
      <rect>
        30 18 6 3</rect></_>
    <_>
      <rect>
        31 4 8 10</rect></_>
    <_>
      <rect>
        31 14 5 5</rect></_>
    <_>
      <rect>
        31 19 9 7</rect></_>
    <_>
      <rect>
        31 28 6 4</rect></_>
    <_>
      <rect>
        32 0 11 7</rect></_>
    <_>
      <rect>
        32 6 16 9</rect></_>
    <_>
      <rect>
        32 8 3 2</rect></_>
    <_>
      <rect>
        32 10 9 9</rect></_>
    <_>
      <rect>
        32 11 2 4</rect></_>
    <_>
      <rect>
        32 13 4 3</rect></_>
    <_>
      <rect>
        32 13 4 4</rect></_>
    <_>
      <rect>
        32 14 8 6</rect></_>
    <_>
      <rect>
        32 15 9 5</rect></_>
    <_>
      <rect>
        32 16 7 6</rect></_>
    <_>
      <rect>
        32 18 8 6</rect></_>
    <_>
      <rect>
        33 4 12 12</rect></_>
    <_>
      <rect>
        33 8 6 6</rect></_>
    <_>
      <rect>
        33 11 10 7</rect></_>
    <_>
      <rect>
        33 12 3 3</rect></_>
    <_>
      <rect>
        33 13 2 4</rect></_>
    <_>
      <rect>
        33 13 10 9</rect></_>
    <_>
      <rect>
        33 15 1 4</rect></_>
    <_>
      <rect>
        33 15 4 3</rect></_>
    <_>
      <rect>
        33 16 2 3</rect></_>
    <_>
      <rect>
        33 18 3 3</rect></_>
    <_>
      <rect>
        33 20 8 6</rect></_>
    <_>
      <rect>
        34 9 8 9</rect></_>
    <_>
      <rect>
        34 10 5 8</rect></_>
    <_>
      <rect>
        34 17 3 3</rect></_>
    <_>
      <rect>
        34 17 4 2</rect></_>
    <_>
      <rect>
        34 18 7 4</rect></_>
    <_>
      <rect>
        35 1 8 8</rect></_>
    <_>
      <rect>
        35 4 5 6</rect></_>
    <_>
      <rect>
        35 11 4 5</rect></_>
    <_>
      <rect>
        35 12 4 7</rect></_>
    <_>
      <rect>
        35 13 3 5</rect></_>
    <_>
      <rect>
        35 15 2 3</rect></_>
    <_>
      <rect>
        35 15 5 4</rect></_>
    <_>
      <rect>
        35 16 2 3</rect></_>
    <_>
      <rect>
        35 16 5 4</rect></_>
    <_>
      <rect>
        35 17 2 2</rect></_>
    <_>
      <rect>
        35 18 2 2</rect></_>
    <_>
      <rect>
        35 19 1 1</rect></_>
    <_>
      <rect>
        35 19 2 2</rect></_>
    <_>
      <rect>
        35 21 3 2</rect></_>
    <_>
      <rect>
        35 24 7 5</rect></_>
    <_>
      <rect>
        36 0 13 7</rect></_>
    <_>
      <rect>
        36 2 8 7</rect></_>
    <_>
      <rect>
        36 10 3 6</rect></_>
    <_>
      <rect>
        36 15 3 4</rect></_>
    <_>
      <rect>
        36 17 3 5</rect></_>
    <_>
      <rect>
        36 18 1 1</rect></_>
    <_>
      <rect>
        37 16 5 5</rect></_>
    <_>
      <rect>
        37 17 1 1</rect></_>
    <_>
      <rect>
        37 18 1 1</rect></_>
    <_>
      <rect>
        37 18 3 6</rect></_>
    <_>
      <rect>
        37 19 1 1</rect></_>
    <_>
      <rect>
        37 19 5 4</rect></_>
    <_>
      <rect>
        37 23 1 1</rect></_>
    <_>
      <rect>
        38 5 6 6</rect></_>
    <_>
      <rect>
        38 5 7 10</rect></_>
    <_>
      <rect>
        38 6 14 11</rect></_>
    <_>
      <rect>
        38 7 6 4</rect></_>
    <_>
      <rect>
        38 14 9 8</rect></_>
    <_>
      <rect>
        38 15 4 5</rect></_>
    <_>
      <rect>
        38 17 1 3</rect></_>
    <_>
      <rect>
        38 17 2 3</rect></_>
    <_>
      <rect>
        38 17 3 2</rect></_>
    <_>
      <rect>
        39 5 4 6</rect></_>
    <_>
      <rect>
        39 8 3 2</rect></_>
    <_>
      <rect>
        39 15 3 4</rect></_>
    <_>
      <rect>
        39 15 4 6</rect></_>
    <_>
      <rect>
        39 17 2 2</rect></_>
    <_>
      <rect>
        39 17 2 3</rect></_>
    <_>
      <rect>
        39 17 6 7</rect></_>
    <_>
      <rect>
        39 18 1 1</rect></_>
    <_>
      <rect>
        39 19 1 1</rect></_>
    <_>
      <rect>
        40 0 6 5</rect></_>
    <_>
      <rect>
        40 14 4 5</rect></_>
    <_>
      <rect>
        40 17 1 2</rect></_>
    <_>
      <rect>
        40 18 1 2</rect></_>
    <_>
      <rect>
        40 19 1 1</rect></_>
    <_>
      <rect>
        40 20 1 1</rect></_>
    <_>
      <rect>
        41 9 7 4</rect></_>
    <_>
      <rect>
        41 10 10 9</rect></_>
    <_>
      <rect>
        41 19 1 1</rect></_>
    <_>
      <rect>
        42 9 8 6</rect></_>
    <_>
      <rect>
        42 15 3 4</rect></_>
    <_>
      <rect>
        43 0 6 7</rect></_>
    <_>
      <rect>
        43 1 6 6</rect></_>
    <_>
      <rect>
        43 1 12 9</rect></_>
    <_>
      <rect>
        44 7 5 6</rect></_>
    <_>
      <rect>
        44 10 8 4</rect></_>
    <_>
      <rect>
        44 17 11 7</rect></_>
    <_>
      <rect>
        44 18 4 3</rect></_>
    <_>
      <rect>
        47 7 11 11</rect></_>
    <_>
      <rect>
        47 8 6 8</rect></_>
    <_>
      <rect>
        58 17 1 1</rect></_></features></cascade>
</opencv_storage>
